0.023220461631130895
0.020095716429917587
0.029493822557483895
0.05488432506159313
0.027711328450235093
-0.1995208280550299
-0.07540736081266508
0.015148607620368182
0.002157058751834029
0.08306840858553599
0.006883610687756558
0.011289537316850423
-0.04024406988186552
0.002624345313278792
-0.1897250029721249
0.02216550848144916
-0.10855139452734619
0.05268235546630251
0.013770876592690051
-0.028175070984462147
0.0289145360325741
-0.011680700645001707
-0.0005596190228409625
0.019064772997268165
-0.01601609463740772
-0.05255126982357472
0.44998821341472794
0.03901816065125112
0.01679664008540005
-0.04068867659934838
0.007490796281786061
-0.007835675956478383
-0.002903633293025898
0.034564265279562134
-1.00843823321037
0.46613571787497676
-0.04185072986938643
0.03217998280247869
0.025621261734289746
-0.028053748510568077
-0.11822505792613924
0.008766877468142198
-0.023499741953310505
0.05492062304188128
-0.009679189821693024
0.0002909670974722278
-0.049124333307442924
0.1949514884872201
-0.03454263446732553
0.007570259063577112
-0.04668243007505876
-0.07473553624544216
-0.07292116039842567
-0.021038580986047606
0.02645856629609966
0.028003065310999276
-0.03052059546429886
0.6229636359243251
0.18156304096970644
0.625519314234225
0.029968958519841493
-0.018643702144098384
-0.12446974794904586
-0.021767630305557506
0.049452555492109695
-0.04886104923798662
0.014212240040876623
0.0662097271749218
-0.2154973760827108
0.041034915153415286
0.032897435794350116
0.002126576658895374
0.01287932319077889
0.009521354545718452
0.053493697562064124
0.014803334226410225
-0.02532098949416195
-0.003342180637902814
-0.7843263488921366
0.2658118577614914
0.11683400594066962
0.026232291101510874
0.012155741376869145
0.0032594073684251157
-0.04501729675509125
0.10970028498609175
0.09874458685534226
0.7952096414663288
-0.10573595530272328
-0.032918467181607625
0.11852807468818582
-0.015108780569633051
0.05964518574708799
-0.2957286900079561
-0.04586202868608069
0.02158048806218993
-0.0006864760346729781
0.011126274995973517
-57.465760308410154
0.023876275561583782
